<?xml version="1.0"?>
<opencv_storage>
<cascade>
  <stageType>BOOST</stageType>
  <featureType>HAAR</featureType>
  <height>20</height>
  <width>30</width>
  <stageParams>
    <boostType>GAB</boostType>
    <minHitRate>9.9500000476837158e-01</minHitRate>
    <maxFalseAlarm>5.0000000000000000e-01</maxFalseAlarm>
    <weightTrimRate>9.4999998807907104e-01</weightTrimRate>
    <maxDepth>1</maxDepth>
    <maxWeakCount>100</maxWeakCount></stageParams>
  <featureParams>
    <maxCatCount>0</maxCatCount>
    <featSize>1</featSize>
    <mode>BASIC</mode></featureParams>
  <stageNum>3</stageNum>
  <stages>
    <!-- stage 0 -->
    <_>
      <maxWeakCount>1</maxWeakCount>
      <stageThreshold>9.9170124530792236e-01</stageThreshold>
      <weakClassifiers>
        <_>
          <internalNodes>
            0 -1 3 -4.0784668922424316e-01</internalNodes>
          <leafValues>
            9.9170124530792236e-01 -1.</leafValues></_></weakClassifiers></_>
    <!-- stage 1 -->
    <_>
      <maxWeakCount>2</maxWeakCount>
      <stageThreshold>-2.3108959197998047e-01</stageThreshold>
      <weakClassifiers>
        <_>
          <internalNodes>
            0 -1 4 -1.9292427599430084e-01</internalNodes>
          <leafValues>
            9.3333333730697632e-01 -9.6799999475479126e-01</leafValues></_>
        <_>
          <internalNodes>
            0 -1 2 -8.3272442221641541e-02</internalNodes>
          <leafValues>
            7.3691040277481079e-01 -1.</leafValues></_></weakClassifiers></_>
    <!-- stage 2 -->
    <_>
      <maxWeakCount>2</maxWeakCount>
      <stageThreshold>-1.8254265189170837e-01</stageThreshold>
      <weakClassifiers>
        <_>
          <internalNodes>
            0 -1 0 -1.7853382229804993e-01</internalNodes>
          <leafValues>
            9.8290598392486572e-01 -9.6837943792343140e-01</leafValues></_>
        <_>
          <internalNodes>
            0 -1 1 -2.0639421045780182e-01</internalNodes>
          <leafValues>
            7.8583681583404541e-01 -1.</leafValues></_></weakClassifiers></_></stages>
  <features>
    <_>
      <rects>
        <_>
          0 3 12 14 -1.</_>
        <_>
          6 3 6 14 2.</_></rects>
      <tilted>0</tilted></_>
    <_>
      <rects>
        <_>
          1 2 12 17 -1.</_>
        <_>
          7 2 6 17 2.</_></rects>
      <tilted>0</tilted></_>
    <_>
      <rects>
        <_>
          2 0 28 8 -1.</_>
        <_>
          2 4 28 4 2.</_></rects>
      <tilted>0</tilted></_>
    <_>
      <rects>
        <_>
          3 5 27 10 -1.</_>
        <_>
          12 5 9 10 3.</_></rects>
      <tilted>0</tilted></_>
    <_>
      <rects>
        <_>
          10 0 20 18 -1.</_>
        <_>
          10 6 20 6 3.</_></rects>
      <tilted>0</tilted></_></features></cascade>
</opencv_storage>
